<?xml version="1.0"?>
<opencv_storage>
<cascade>
  <stageType>BOOST</stageType>
  <featureType>HAAR</featureType>
  <height>20</height>
  <width>20</width>
  <stageParams>
    <boostType>GAB</boostType>
    <minHitRate>9.9900001287460327e-01</minHitRate>
    <maxFalseAlarm>5.0000000745058060e-02</maxFalseAlarm>
    <weightTrimRate>9.4999999999999996e-01</weightTrimRate>
    <maxDepth>1</maxDepth>
    <maxWeakCount>100</maxWeakCount></stageParams>
  <featureParams>
    <maxCatCount>0</maxCatCount>
    <featSize>1</featSize>
    <mode>ALL</mode></featureParams>
  <stageNum>3</stageNum>
  <stages>
    <!-- stage 0 -->
    <_>
      <maxWeakCount>6</maxWeakCount>
      <stageThreshold>1.5329246409237385e-02</stageThreshold>
      <weakClassifiers>
        <_>
          <internalNodes>
            0 -1 15 1.4355970546603203e-02</internalNodes>
          <leafValues>
            -6.8978101015090942e-01 8.3628320693969727e-01</leafValues></_>
        <_>
          <internalNodes>
            0 -1 7 3.8329432718455791e-03</internalNodes>
          <leafValues>
            -5.5609416961669922e-01 9.1839170455932617e-01</leafValues></_>
        <_>
          <internalNodes>
            0 -1 1 1.8056808039546013e-02</internalNodes>
          <leafValues>
            -9.5817434787750244e-01 6.0668683052062988e-01</leafValues></_>
        <_>
          <internalNodes>
            0 -1 9 -1.9703470170497894e-02</internalNodes>
          <leafValues>
            6.5886729955673218e-01 -6.9921982288360596e-01</leafValues></_>
        <_>
          <internalNodes>
            0 -1 11 1.8534269183874130e-02</internalNodes>
          <leafValues>
            -8.7237066030502319e-01 5.2437347173690796e-01</leafValues></_>
        <_>
          <internalNodes>
            0 -1 4 -5.9140450321137905e-03</internalNodes>
          <leafValues>
            9.7674071788787842e-01 -4.8992618918418884e-01</leafValues></_></weakClassifiers></_>
    <!-- stage 1 -->
    <_>
      <maxWeakCount>6</maxWeakCount>
      <stageThreshold>-1.0165585279464722e+00</stageThreshold>
      <weakClassifiers>
        <_>
          <internalNodes>
            0 -1 10 4.7078649513423443e-03</internalNodes>
          <leafValues>
            -5.8949095010757446e-01 9.1815859079360962e-01</leafValues></_>
        <_>
          <internalNodes>
            0 -1 8 3.8357614539563656e-03</internalNodes>
          <leafValues>
            -4.7550424933433533e-01 8.9693444967269897e-01</leafValues></_>
        <_>
          <internalNodes>
            0 -1 0 -2.6826605200767517e-02</internalNodes>
          <leafValues>
            5.6534570455551147e-01 -9.3071782588958740e-01</leafValues></_>
        <_>
          <internalNodes>
            0 -1 3 2.4846963584423065e-02</internalNodes>
          <leafValues>
            4.5141342282295227e-01 -9.0527141094207764e-01</leafValues></_>
        <_>
          <internalNodes>
            0 -1 18 -6.0400236397981644e-03</internalNodes>
          <leafValues>
            9.9389493465423584e-01 -4.8020154237747192e-01</leafValues></_>
        <_>
          <internalNodes>
            0 -1 17 -9.1517977416515350e-03</internalNodes>
          <leafValues>
            1. -4.9970689415931702e-01</leafValues></_></weakClassifiers></_>
    <!-- stage 2 -->
    <_>
      <maxWeakCount>8</maxWeakCount>
      <stageThreshold>2.8106880187988281e-01</stageThreshold>
      <weakClassifiers>
        <_>
          <internalNodes>
            0 -1 19 6.5420623868703842e-03</internalNodes>
          <leafValues>
            -9.5252227783203125e-01 4.8416289687156677e-01</leafValues></_>
        <_>
          <internalNodes>
            0 -1 5 -5.7710368186235428e-02</internalNodes>
          <leafValues>
            9.7997206449508667e-01 -5.0261509418487549e-01</leafValues></_>
        <_>
          <internalNodes>
            0 -1 16 -4.1652829386293888e-03</internalNodes>
          <leafValues>
            9.7925931215286255e-01 -4.7925600409507751e-01</leafValues></_>
        <_>
          <internalNodes>
            0 -1 14 -1.5627706423401833e-02</internalNodes>
          <leafValues>
            -9.6315109729766846e-01 5.7378995418548584e-01</leafValues></_>
        <_>
          <internalNodes>
            0 -1 13 3.5134241916239262e-03</internalNodes>
          <leafValues>
            -5.5290400981903076e-01 9.0114784240722656e-01</leafValues></_>
        <_>
          <internalNodes>
            0 -1 12 1.5405936166644096e-02</internalNodes>
          <leafValues>
            -5.5692738294601440e-01 8.1463515758514404e-01</leafValues></_>
        <_>
          <internalNodes>
            0 -1 2 -5.1619939767988399e-05</internalNodes>
          <leafValues>
            -9.8973917961120605e-01 5.0279706716537476e-01</leafValues></_>
        <_>
          <internalNodes>
            0 -1 6 -6.3296011649072170e-03</internalNodes>
          <leafValues>
            9.1289997100830078e-01 -5.5954122543334961e-01</leafValues></_></weakClassifiers></_></stages>
  <features>
    <_>
      <rects>
        <_>
          0 14 20 6 -1.</_>
        <_>
          0 17 20 3 2.</_></rects>
      <tilted>0</tilted></_>
    <_>
      <rects>
        <_>
          0 15 20 5 -1.</_>
        <_>
          5 15 10 5 2.</_></rects>
      <tilted>0</tilted></_>
    <_>
      <rects>
        <_>
          1 0 2 2 -1.</_>
        <_>
          2 0 1 2 2.</_></rects>
      <tilted>0</tilted></_>
    <_>
      <rects>
        <_>
          5 3 10 15 -1.</_>
        <_>
          10 3 5 15 2.</_></rects>
      <tilted>0</tilted></_>
    <_>
      <rects>
        <_>
          5 10 1 3 -1.</_>
        <_>
          5 11 1 1 3.</_></rects>
      <tilted>0</tilted></_>
    <_>
      <rects>
        <_>
          6 3 13 3 -1.</_>
        <_>
          5 4 13 1 3.</_></rects>
      <tilted>1</tilted></_>
    <_>
      <rects>
        <_>
          6 6 3 1 -1.</_>
        <_>
          7 6 1 1 3.</_></rects>
      <tilted>0</tilted></_>
    <_>
      <rects>
        <_>
          6 8 3 1 -1.</_>
        <_>
          7 8 1 1 3.</_></rects>
      <tilted>0</tilted></_>
    <_>
      <rects>
        <_>
          7 6 3 1 -1.</_>
        <_>
          8 6 1 1 3.</_></rects>
      <tilted>0</tilted></_>
    <_>
      <rects>
        <_>
          7 9 6 3 -1.</_>
        <_>
          9 10 2 1 9.</_></rects>
      <tilted>0</tilted></_>
    <_>
      <rects>
        <_>
          7 14 3 1 -1.</_>
        <_>
          8 14 1 1 3.</_></rects>
      <tilted>0</tilted></_>
    <_>
      <rects>
        <_>
          8 0 12 19 -1.</_>
        <_>
          11 0 6 19 2.</_></rects>
      <tilted>0</tilted></_>
    <_>
      <rects>
        <_>
          8 10 3 3 -1.</_>
        <_>
          9 11 1 1 9.</_></rects>
      <tilted>0</tilted></_>
    <_>
      <rects>
        <_>
          8 12 3 1 -1.</_>
        <_>
          9 12 1 1 3.</_></rects>
      <tilted>0</tilted></_>
    <_>
      <rects>
        <_>
          9 2 8 6 -1.</_>
        <_>
          9 2 4 6 2.</_></rects>
      <tilted>1</tilted></_>
    <_>
      <rects>
        <_>
          9 7 3 3 -1.</_>
        <_>
          10 8 1 1 9.</_></rects>
      <tilted>0</tilted></_>
    <_>
      <rects>
        <_>
          10 12 2 1 -1.</_>
        <_>
          11 12 1 1 2.</_></rects>
      <tilted>0</tilted></_>
    <_>
      <rects>
        <_>
          13 9 1 3 -1.</_>
        <_>
          13 10 1 1 3.</_></rects>
      <tilted>0</tilted></_>
    <_>
      <rects>
        <_>
          13 10 1 3 -1.</_>
        <_>
          13 11 1 1 3.</_></rects>
      <tilted>0</tilted></_>
    <_>
      <rects>
        <_>
          14 0 6 6 -1.</_>
        <_>
          14 3 6 3 2.</_></rects>
      <tilted>0</tilted></_></features></cascade>
</opencv_storage>
